// AUTO-GENERATED INT8 WEIGHTS FOR FPGA
// TinyMobileNet-XS Quantized Weights

#ifndef __TINYMOBILENET_WEIGHTS_H__
#define __TINYMOBILENET_WEIGHTS_H__

#include <stdint.h>

// Layer 0: conv1.0
// Shape: (8, 3, 3, 3)
// Scale: 483.5952560281554
int8_t weights_0[216] = {
-32, 81, 109, 13, 43, 61, 27, -39, 81, -63, 82, 103, 6, 30, 18, -105, 
113, 18, 88, 64, 17, 72, 35, -2, -87, 78, -92, -56, -92, -108, 9, 22, 
108, 84, 60, -44, 31, 71, 17, 33, 87, 74, -32, 106, 62, -69, 115, -33, 
121, 64, 84, 13, 86, 67, 53, -10, 41, -67, 103, 69, -86, -43, 81, -31, 
-1, 39, -81, 66, 49, 10, 55, -30, 76, -32, 56, -127, -104, -99, 32, -8, 
82, 57, 73, 34, 115, -40, -63, -16, -17, -74, 13, 120, 75, -73, -122, -18, 
32, 112, 55, 104, -47, 83, -31, -12, 11, 41, -61, -67, 39, 121, -46, 57, 
30, -19, 86, 110, 119, 43, 46, -84, -84, -78, -31, 16, -3, -90, -78, -6, 
122, -55, -13, 8, 4, -12, 117, -124, 85, -57, -52, 85, -63, -13, 85, 28, 
-16, 5, 6, 7, -26, -60, 81, -17, 1, -12, -98, -54, -47, 104, -61, 43, 
-105, -37, -104, 17, 85, -42, 27, -79, -95, 87, -33, 49, -20, -65, 64, 19, 
-108, 98, -34, -123, -4, -88, -47, 120, 93, -83, 103, 112, -37, -57, 61, 115, 
-79, -126, 125, -90, -115, -57, 79, -66, 70, 12, 29, -107, -10, 95, -64, 17, 
94, -54, -2, 109, 9, 64, 65, -78};

// Layer 1: bottleneck_a.dw.0
// Shape: (8, 1, 3, 3)
// Scale: 465.52858965494903
int8_t weights_1[72] = {
4, -101, -95, 38, 9, -32, 105, 29, 2, -54, 114, 81, -66, -84, 63, 26, 
-20, 124, 32, -75, 77, -11, 61, -72, 117, -38, -75, 89, -59, -21, -35, -62, 
53, -32, 27, 10, 41, -12, -77, -67, -41, 39, 111, -75, 61, -101, -85, 16, 
15, 20, -48, -22, -85, -75, -28, 35, -13, -107, 127, -105, -43, 14, -10, 19, 
37, -39, 37, -11, 83, 47, 103, -100};

// Layer 2: bottleneck_a.project.0
// Shape: (8, 8, 1, 1)
// Scale: 152.64207336411383
int8_t weights_2[64] = {
-107, 64, 34, 55, -72, -101, -97, 94, 56, -33, 108, -4, 61, 19, 36, 56, 
-7, -45, -98, -127, -67, -8, -66, -94, 30, 87, 4, -87, -123, -2, -27, 33, 
25, 97, -42, -64, -36, -81, 31, -51, -57, -67, 21, -75, 79, -42, 63, 57, 
-107, -5, 53, -88, 10, 107, -32, 39, 38, -72, -84, -11, 19, 64, 3, -74
};

// Layer 3: bottleneck_b.expand.0
// Shape: (32, 8, 1, 1)
// Scale: 301.6129146050308
int8_t weights_3[256] = {
-64, 98, 101, 49, -9, 67, -63, 53, -69, 1, 1, -71, 85, -96, -43, 25, 
-61, -87, 29, -32, -80, 96, -44, 41, -97, 80, -42, 23, -25, -17, -52, 13, 
-78, 66, 87, 25, 122, 65, 55, 26, -46, 65, 80, 82, -94, -120, -82, 102, 
-83, 82, 118, 73, 54, -39, 22, 17, 91, 5, -71, -47, -91, 85, 86, 26, 
-47, 73, -79, 48, 8, -29, -14, -53, 7, 57, 36, -38, -83, 11, -10, -37, 
89, -115, 110, -64, 69, 51, -17, 63, -8, 9, 92, 108, -51, -3, -49, -19, 
-6, 45, -7, -40, 81, -22, -12, -12, 106, 49, -85, -69, -39, -12, -52, 19, 
17, 65, -41, 101, -3, -77, -75, -95, -33, 49, -59, 61, -57, 85, 10, 26, 
67, -54, -57, 92, -7, 65, -95, 29, 22, -113, -20, 3, 26, -7, -42, -83, 
95, -46, 25, -52, -17, -60, -96, 49, -75, -103, 33, -61, 39, -81, 11, 4, 
-41, -47, 56, -53, 58, 95, -51, 54, -15, -51, 34, 20, -127, -73, 37, -109, 
-80, -24, 37, 103, 19, 30, 78, -27, -21, 35, 67, -5, 102, -78, -45, -4, 
-1, 46, 60, 105, -24, -25, 82, 81, 84, 73, 46, -109, 6, -94, 110, -103, 
-81, -16, -22, -90, -18, 75, 3, 59, 40, 23, -82, 58, 105, 33, -87, 71, 
-73, -38, -35, -85, 38, 12, -79, 9, -103, 110, -26, -80, -50, -35, 34, -70, 
51, -49, 26, -8, -103, 40, 119, -50, -91, -108, 89, -56, -75, 95, -61, 24
};

// Layer 4: bottleneck_b.dw.0
// Shape: (32, 1, 3, 3)
// Scale: 851.0060637044434
int8_t weights_4[288] = {
93, -47, -8, 33, 31, 40, 4, 99, -119, 112, 79, 62, -66, 68, 18, 29, 
82, 70, 48, -15, -56, 104, 23, -3, -90, -69, 8, -84, 70, -59, -13, 83, 
4, -3, 12, -61, 8, 85, 44, -80, -45, 7, 16, 71, -9, -54, -78, -21, 
-42, 19, -98, -29, -72, -61, 59, -98, -76, 100, 38, 120, 13, -81, -68, 9, 
72, -73, -28, 94, 80, -75, 84, 113, -11, 72, -118, -43, 101, -105, -14, 71, 
-52, -13, 67, -83, -57, 12, -75, 7, -24, -93, -21, 0, -84, 28, -65, 19, 
-80, -106, 96, 33, 103, 49, -64, 14, -51, -72, -81, 54, 66, -47, 50, 33, 
45, -39, -35, -37, 19, 46, -52, 55, 5, -31, -13, -108, 21, 127, 40, -28, 
95, -65, -101, 18, -57, -56, 16, -68, -79, 92, 104, -56, -42, -78, -99, 69, 
-79, 49, 117, 64, -94, -33, -25, -39, -69, -12, 25, 71, -43, -106, -97, 2, 
-109, 93, -24, 15, 41, 114, 57, -21, -104, -45, -71, 34, -76, 40, 39, 34, 
-40, 9, 23, 82, -68, -89, 83, 73, -28, 75, -10, 25, -43, -61, -90, 121, 
-57, -23, -9, -9, 77, 36, -94, -83, -17, 37, 28, 56, -77, 38, 63, 57, 
-60, -84, 64, -36, -93, -36, 96, 75, -5, -63, -73, -53, -60, 74, -91, 16, 
42, -67, 102, -41, 28, 39, -65, -67, 101, -100, -8, -37, 60, -110, 70, 49, 
75, -83, 36, -96, 49, 27, 4, 32, -26, -5, 35, 74, 6, 68, 35, 55, 
16, -99, 0, -23, -9, -35, 43, 103, -81, 3, -13, 65, -31, 2, -25, 38, 
17, 3, -7, -115, -124, 66, 83, -43, -9, -2, -92, -71, -48, -3, 68, -81
};

// Layer 5: bottleneck_b.project.0
// Shape: (12, 32, 1, 1)
// Scale: 180.89975618043295
int8_t weights_5[384] = {
108, 82, -9, -83, -55, -65, -67, -68, 23, -94, -82, 101, 11, -1, -69, -22, 
41, -48, 22, -96, -34, -89, -105, -81, 14, -47, 96, -114, -68, 38, 79, 100, 
29, 79, -27, -35, 48, 74, -94, -3, -24, -14, 75, -30, 4, -49, 3, 33, 
-83, -56, 59, 22, 106, -33, 108, 92, 51, -65, -109, -59, 127, -43, -92, 55, 
65, 111, -99, 48, -61, -70, -100, 47, -49, 85, 40, 9, -95, -4, -116, -74, 
87, -87, -38, 113, -112, 17, 34, 24, -82, 114, 11, -28, 1, 101, -107, 33, 
72, -108, -12, 91, -116, -14, -15, 7, 34, -37, 37, 15, 107, -4, -91, -26, 
-34, 92, 42, -37, 8, -74, -75, -76, -106, -74, 27, 58, 46, 63, -78, -56, 
32, 105, 61, 17, -5, 105, 101, 43, 115, 88, 104, -90, -19, 21, -5, 51, 
34, 28, 68, 101, 14, -65, 56, -51, 53, 24, 95, -47, 41, 99, 61, -6, 
27, 89, -98, 61, 5, -13, -18, -2, 62, -62, -100, -113, 90, -58, 115, 79, 
20, 68, 102, 94, 68, 28, 46, -5, 53, 32, -57, 78, 114, -9, -49, 8, 
-35, -50, 16, 28, 88, 80, -68, -53, -80, -2, 53, -17, -116, -68, 25, 86, 
80, -45, -31, -2, -20, -59, 35, -5, 104, 71, 88, 34, 90, -55, -106, 42, 
80, 47, -93, 50, 37, 34, -110, 43, -97, 37, -32, -96, 58, -104, 22, 72, 
20, 44, -7, -11, -33, 70, 41, -62, -48, 70, -68, -112, 32, 72, 28, 34, 
105, 5, -82, 102, -73, 110, 46, -103, -39, -3, 44, -74, -17, 6, -86, 100, 
-99, -94, -1, -5, -80, -106, 34, 3, -37, 98, 57, 53, 30, 56, 2, 111, 
1, -15, -58, 73, 64, -2, -103, 17, -89, -117, 83, 107, 5, -112, -10, -53, 
12, -40, 89, 0, -102, 63, 29, -76, -36, -95, -32, -21, 28, -81, -7, -31, 
-70, -10, 15, 73, -21, 118, -41, -42, -112, 31, -97, 63, 28, -53, -6, -49, 
118, -116, 25, 10, 65, 101, -110, -111, 18, -50, 48, 97, -3, -27, 26, -62, 
-33, 49, 35, 1, 101, 38, 83, 12, -26, 63, -107, -114, -45, 77, 4, -81, 
95, 46, 65, 27, -80, 24, 37, 19, -93, 86, -40, -21, -18, 49, 36, 13
};

// Layer 6: bottleneck_c1.expand.0
// Shape: (48, 12, 1, 1)
// Scale: 361.67935567731075
int8_t weights_6[576] = {
-89, -2, -113, -72, 108, 12, -112, 58, -54, -27, 66, -83, 15, 87, -1, -2, 
-26, -28, -48, 55, -100, 13, -84, -38, -74, 105, 4, 60, 3, 26, 24, 13, 
-11, 67, 55, -31, -12, 49, -47, -50, -3, 25, 0, -46, -88, -27, 21, 99, 
-17, -70, 98, -12, 12, 87, -81, -61, 53, 22, -65, 78, -71, 21, 31, -14, 
23, -40, -97, -13, -88, 18, -2, 88, 65, -16, 49, 7, 50, 80, 110, -88, 
-66, -11, 90, 19, 25, -63, 72, 99, -13, 52, -103, 26, 61, -72, 19, 101, 
-25, 13, -10, -102, -8, -94, 36, -80, -35, -57, -21, 0, 103, 6, -38, 5, 
-92, 21, 90, 8, -27, 92, 15, 0, 97, 0, 62, 22, -53, -49, -31, -10, 
-4, -38, -63, -34, -111, -103, -70, 98, 40, -77, -72, -25, -99, 91, 76, 64, 
-97, -73, -14, 65, 28, 75, -37, -85, 35, -7, -1, 51, 31, 0, -31, 4, 
-59, -84, -100, 39, -79, -52, -47, -14, -58, -56, 51, -48, -100, -57, 74, 22, 
53, -49, -9, -71, -99, -32, 74, -9, -88, -23, 50, -11, -63, -71, -32, 52, 
63, 18, 38, 81, -118, -13, 68, -57, -98, -105, -100, -63, -60, -69, -67, 0, 
-6, 28, 0, -32, 71, -51, 36, -97, 70, 30, 63, 43, 33, -41, -88, 103, 
-91, -89, -48, -32, -106, -69, 1, 106, -53, -51, -65, 69, -4, 94, -79, -29, 
101, -88, 79, 16, 53, -108, 71, -3, 100, -20, 91, 96, -50, -44, -77, 56, 
-50, -86, -69, 55, 71, 53, 31, 88, 19, -53, -69, -74, -6, 11, -64, -36, 
103, -30, -22, 86, 13, -59, -84, -35, 66, 83, -97, -44, 30, 4, -25, -75, 
-83, -25, -16, -118, -61, 42, 113, 57, 28, -22, -62, -72, 8, -26, 2, 33, 
-37, -56, -23, -98, -18, -26, 65, 0, -76, -52, 30, -32, 80, -127, 82, -75, 
-92, -121, -104, 15, -85, 18, -94, -77, -43, -113, 44, 67, -94, -99, 98, -45, 
85, -100, 2, -72, 1, 43, -3, -14, 70, -6, -69, 73, 39, 14, 72, 53, 
-63, -66, -8, 55, -93, -99, -1, 71, 79, -89, 119, 81, -2, 0, 18, 6, 
23, 28, -66, -41, -27, -93, -113, -52, 98, -6, -108, -33, -40, -74, -85, 22, 
10, -88, -2, 15, -98, 37, -92, -39, -40, -60, 117, -80, 53, -19, -88, 37, 
71, 77, -14, 89, 27, -93, -33, -69, -104, -4, -61, 3, -4, -96, -7, 54, 
-32, 101, -4, -17, -75, 78, -72, 113, 25, -15, 83, -66, -46, 105, -95, -42, 
-53, -60, -10, -71, 31, -104, 98, -61, -11, 34, -102, 9, -69, -28, 74, -27, 
75, -68, -7, -7, 57, -37, -44, 37, 118, 22, 29, -10, -62, 74, -37, -109, 
42, -7, 56, 98, -63, 67, 32, -47, 33, -16, -94, 82, 96, 40, -9, -93, 
-109, -33, -52, 31, -91, -85, -75, -19, -43, 43, -1, -35, -98, -16, 96, -120, 
12, -59, 69, -59, 57, 108, -75, -69, -64, -53, -5, 103, -53, 46, 2, -92, 
30, 13, -35, -50, -7, -72, 88, -11, -31, 91, 77, -10, 38, 88, -5, -10, 
-33, 32, 37, 0, -88, 82, 77, 36, 39, -53, 97, -18, -34, 41, 34, -94, 
-103, -93, -84, -18, 45, 6, -34, 114, 22, 55, 2, -9, 17, -98, -37, -56, 
-90, -22, 65, -66, 41, 84, 71, 63, -33, 66, 11, 84, -3, 5, 40, 45
};

// Layer 7: bottleneck_c1.dw.0
// Shape: (48, 1, 3, 3)
// Scale: 793.862545613333
int8_t weights_7[432] = {
-23, -51, 36, -43, -91, -60, -46, -51, -33, 41, -101, 12, 11, 31, 42, 14, 
46, 18, 38, -59, -73, -4, 2, 64, -54, 60, 13, 27, -70, -12, -62, -36, 
-51, -38, 10, -6, 3, -45, -16, -41, 47, -84, -4, 0, -52, -87, -14, 15, 
43, -8, 23, 51, 3, -24, -66, 72, 35, -11, -26, 88, -63, 41, 3, 20, 
80, 29, 88, -34, -27, -13, 51, -91, 1, -19, 47, -16, 69, 21, 38, 75, 
-71, 44, -38, -56, 82, -14, 29, -51, 80, 18, -13, -59, -42, 73, -60, -7, 
22, -103, 70, 6, -55, 20, -49, -64, 18, 23, 6, 69, -76, -45, -59, 39, 
-105, -69, -47, -4, 33, -59, -80, 16, -29, -9, 42, 45, 11, -18, 48, -56, 
24, -12, 45, -70, 84, 19, -53, 65, 62, -35, -21, 75, -23, 48, 5, 9, 
-18, 5, -1, 57, 0, 13, -67, 122, 40, -54, -42, -5, -37, -79, 1, 4, 
-27, -64, -61, -67, -11, 16, 34, 55, -10, 12, 40, -34, 42, 29, -1, -11, 
-51, 32, -57, 14, -6, 62, 26, -41, -31, -60, -7, 8, -42, 36, 4, 0, 
58, -63, -56, 30, 57, -31, -47, 5, 21, 41, 85, -24, 43, -93, 49, -76, 
0, -38, 32, 36, -42, 33, -24, -21, 57, -1, -88, -64, -40, 13, -23, 48, 
52, -48, -16, -42, -25, 26, -73, 20, -24, -31, -14, -19, 8, -1, -93, 75, 
-3, 25, -23, 104, -21, -49, -48, -45, -14, 74, -55, -4, -23, -31, -33, -10, 
-16, 19, 50, -17, -17, 57, 6, 86, -27, 3, 16, 32, 44, 57, 8, 70, 
63, 27, -27, 40, -49, 21, 43, 33, -41, 100, 0, 6, 4, 51, -30, 91, 
-62, 23, 72, 35, 26, 13, -3, -45, -43, -14, 25, 10, -43, -40, -34, -30, 
-35, -27, 85, -29, -16, -1, -22, 44, 52, -32, 7, 10, -47, -13, -2, -73, 
-73, -85, 41, -51, -29, 26, -1, 31, -96, 29, -45, -40, -27, 68, 49, 45, 
41, -16, 70, -25, 12, 25, -73, 29, 17, -43, 44, 89, -67, -8, 8, -13, 
23, 66, -20, -41, 31, -51, -78, 47, -29, -48, -54, -40, 43, -50, -25, -41, 
14, -24, 55, 39, -44, 29, -60, 52, -32, -38, -31, 30, 73, 15, 41, 54, 
-41, -61, -28, 90, -26, 4, 4, -78, 9, 29, -25, -51, 17, -31, 37, -75, 
41, 25, -12, -52, 127, -42, -38, 48, 31, -76, -70, 30, -1, 0, -30, -29, 
14, -11, -28, 9, 23, 93, -15, 31, 1, 7, 6, -19, -41, 14, 21, -92
};

// Layer 8: bottleneck_c1.project.0
// Shape: (16, 48, 1, 1)
// Scale: 215.09800644009988
int8_t weights_8[768] = {
109, -96, -38, 62, 3, 115, 69, -6, 4, -94, -93, -14, -12, -102, 90, -7, 
-100, -62, -16, -20, 73, -49, -9, -106, 14, -73, -19, -20, 10, -70, 9, -33, 
-2, 69, 41, 98, -109, -2, 0, -57, -38, 75, 45, -119, -19, -4, -33, -100, 
64, 23, 26, 13, 26, -82, 96, 33, 66, 10, 20, 70, 8, -38, -63, 83, 
62, 85, 86, -26, -96, 78, -1, 101, 113, 111, 56, -1, -62, -10, 62, 47, 
-112, -2, 49, -50, 96, -102, 6, -53, 109, -33, 90, 34, -46, -97, -15, -92, 
-33, -60, -18, 58, -50, -16, 62, -108, 42, -10, -32, -72, 8, 10, 45, -48, 
89, -68, 27, 25, 104, -33, -65, 27, -102, 73, 15, 88, -109, -58, -101, -4, 
2, -5, 34, -23, 53, 73, 86, 58, 66, -57, -49, 47, -22, -48, 13, 75, 
-37, -7, -27, -55, -76, -21, -10, 109, -8, -109, 14, -35, 39, -110, -108, 67, 
71, -89, -108, -50, 7, -111, 79, -59, 26, 116, -49, -27, 37, -105, 1, 1, 
110, 44, -63, 53, -20, -11, 74, -55, -22, -64, 25, 112, -91, 108, -3, -18, 
-118, -14, 26, 59, 89, -109, -87, -77, -16, 0, 104, 56, 17, -88, -82, 25, 
-62, 20, 35, 86, -110, 71, -59, -58, -84, 30, -43, 2, 110, -21, 4, -57, 
-14, -59, -92, -3, 75, 110, 52, -86, 103, -51, -43, -108, -109, -10, -23, -74, 
6, 70, 63, -7, 78, 21, -77, -2, 48, 75, -82, -34, 56, -47, -46, -17, 
13, -29, 53, -83, -96, 97, -75, 60, -13, -16, -107, -77, 40, 11, -78, 81, 
80, -8, -100, -9, 41, -12, -57, -104, -23, 57, 97, -10, -108, 50, 1, -9, 
-68, 70, -104, -38, 18, 109, -11, -99, 1, -55, 36, -109, 19, -1, -106, 15, 
-15, -23, -87, -26, -84, 101, 0, -63, -101, 10, -69, 88, -45, -27, 44, 85, 
-20, -95, 25, 77, 28, 49, -12, -67, 70, 48, 7, 48, 21, -115, 12, -100, 
84, 111, -33, 40, 2, 97, -31, 24, -18, -61, -101, 58, 0, 109, -90, -46, 
75, -76, 71, 82, -35, 15, 102, 30, -118, -17, 58, 80, -103, -12, 17, -42, 
114, 16, -91, -80, 30, 85, 111, 21, -108, -23, -16, -94, 9, -37, -69, 0, 
-27, 69, -29, -1, 24, 88, 72, 86, 12, -19, -106, 85, -72, -104, -9, -111, 
33, 3, 5, 69, -48, -114, 105, 31, 20, -104, -5, -99, -89, 49, -66, 24, 
72, 77, -18, -67, 31, -52, -6, -5, -33, 106, -75, -6, 47, 1, -72, 52, 
109, -50, 23, -41, -7, -36, 26, -38, 13, 15, -109, 103, -50, -112, 51, -39, 
-14, -58, -33, -66, 24, 17, 9, -55, -63, 78, 39, 124, 81, 67, -47, -106, 
-77, 49, -58, -40, 65, -12, -119, -43, 45, 5, 91, 68, -96, -66, 64, 106, 
99, 90, 64, 68, 23, -1, 104, 41, -79, -13, -13, 48, 76, -87, -98, 73, 
-19, 103, 61, 60, -12, -78, -5, -98, -14, -110, -2, 97, 42, 96, 23, -72, 
40, -70, 23, 94, -16, -117, -36, -71, 18, 76, -23, -9, -83, 47, -72, 14, 
1, 44, -78, -85, -81, -112, 52, -46, -28, -51, -110, 65, 60, 5, 43, 55, 
115, -48, -13, 9, -84, 69, -86, 60, 18, -20, -12, 103, -3, 44, 88, -48, 
50, -105, 102, 16, 64, -90, -70, 31, 5, -86, 95, 81, 48, -69, 48, 112, 
20, -3, -8, 45, 4, -36, 57, 93, 77, -106, -11, 77, -75, -47, -41, 22, 
-4, 2, -89, 94, 24, 66, -9, 44, 20, 33, -3, -112, -40, -81, 111, -6, 
105, -91, -104, 70, 11, -97, 54, -53, -5, -7, 23, -98, 84, -58, -54, -83, 
-105, -50, -37, 38, -7, 5, -8, -44, -36, -13, -35, -30, -72, 93, 30, 47, 
-79, -88, -59, 40, -16, -12, 83, 21, -25, 70, -18, -127, 76, 40, 50, 22, 
-25, -13, 4, 107, 41, 80, -86, 97, 14, 107, 14, -116, 54, 9, -73, -16, 
4, 20, -25, -69, 11, 51, -15, 106, -6, 75, 91, 20, 9, -2, 120, 12, 
-31, -3, -3, 14, -14, -47, -15, -2, -79, -5, -9, -13, 57, -84, -67, 2, 
-84, -8, 93, -90, -113, 96, 97, -5, -41, 38, 88, -25, -60, -8, 8, -13, 
-11, 110, -21, 101, -116, -5, -104, -13, -105, 29, 9, 29, 108, 4, 51, -56, 
-55, 79, 56, 100, 109, -5, -30, -86, -46, -66, -44, -33, 37, 86, 6, 103, 
-52, -34, -68, 84, -22, -51, 70, -48, 54, 12, 116, -45, 0, 23, 105, 30
};

// Layer 9: bottleneck_c2.expand.0
// Shape: (64, 16, 1, 1)
// Scale: 427.04863663826535
int8_t weights_9[1024] = {
-75, 74, 1, -19, -49, 20, -62, 40, -18, -41, 23, -80, 39, -39, 38, 28, 
-4, -23, 5, -65, 5, 80, -52, -66, -22, 59, 20, -28, -122, 5, 84, -2, 
8, -28, -85, 92, -13, 25, 98, -91, -1, 10, 5, -35, -69, -6, 69, -81, 
30, 41, -59, -2, -11, -3, 94, 7, 80, -23, 51, 42, -18, 61, 81, -9, 
58, 84, -50, 9, -27, 64, -70, 71, -8, 9, 39, -61, -42, -58, 23, 66, 
-5, 42, -94, -59, 18, -51, 79, -8, 81, 7, -10, -81, 16, 3, -49, -47, 
10, 18, 56, 71, 68, 88, -89, 85, 95, -43, 68, -48, 75, 94, -87, -7, 
58, 38, 44, -71, 11, 12, 5, 60, 51, -6, 42, 45, -45, -3, -18, -14, 
24, 90, -59, 77, -77, -3, -2, 33, -26, -70, -20, -66, -11, -50, -34, 77, 
34, -74, -97, 3, 32, 47, 4, -35, 49, -87, 55, 12, -76, -9, -6, -37, 
3, 23, -90, 75, 101, -34, -21, -21, -26, 21, 5, 15, 4, 29, 8, -43, 
-12, -21, -24, -27, 58, 73, 90, -6, -80, 5, -45, -49, 41, -20, -7, -13, 
51, -59, -38, 44, -36, -10, 49, -99, -41, -2, -14, 52, 72, 87, -4, 61, 
56, -73, 118, -110, -64, -14, 60, -16, -6, 32, -11, -28, -90, -78, 91, 77, 
-96, 72, -2, -14, 96, 50, 3, 13, 13, 46, -1, -19, 79, -17, 42, 59, 
93, -10, 68, -38, -10, -60, -73, -2, -96, 93, -83, -2, -66, 16, -48, -1, 
63, -86, -20, -39, -8, 17, 12, 52, 11, 86, -81, 66, 48, -3, -57, 62, 
-30, -24, -9, -56, -92, -73, 18, -2, 66, -1, -72, -57, 11, 61, 10, 10, 
-74, 51, -87, 27, 13, -60, 0, -31, -34, -26, -15, -79, -11, 68, 26, -25, 
-36, 114, -10, -40, 61, 60, -7, -10, -95, -52, 0, -2, -69, 78, -14, 118, 
16, 20, -44, -44, -62, 68, 69, -83, 60, 48, -83, 88, -86, -62, 13, 35, 
-76, 42, -71, 62, 93, 30, -26, 86, 0, -92, -19, -8, 1, 88, 36, 37, 
28, -48, -17, 72, -63, -46, -9, -68, 14, -92, 88, 15, -83, 60, -6, 12, 
-62, 15, -40, 1, -14, -80, -82, -12, -75, 16, 46, 80, 29, 19, 22, 42, 
95, -41, -96, -42, 115, 43, 55, -36, -72, -70, -22, -26, -66, 24, 45, 71, 
-14, -13, 14, -10, -37, 59, -78, 48, -42, 3, 28, -36, -31, 37, -87, -3, 
-63, 52, 12, -82, -21, -6, -35, 61, -24, 82, -77, 89, 5, 2, 77, -50, 
15, 94, -22, -5, 28, -91, -21, -3, -12, -20, 76, 76, 95, 31, 102, -9, 
91, 72, -12, 50, -57, -61, -3, 82, -12, 40, 37, 13, 7, -96, -68, -91, 
67, 124, 21, 21, 76, 58, 15, 34, 65, 42, 39, 49, -5, -8, -40, 106, 
-60, -29, 75, -89, 82, 46, -6, 7, -96, 6, 48, 8, -37, -88, -5, -26, 
-57, 51, 16, -28, 33, -56, -54, -82, -16, -23, 97, -37, 90, 78, 87, 92, 
63, 8, -20, -81, -15, 13, 72, -50, 105, 5, -84, 19, 24, 90, -34, 87, 
-65, -52, -46, -111, 2, 104, 47, -23, -57, -109, -11, -63, 53, 77, -59, -89, 
-98, -1, -64, -47, 4, -9, 15, -11, 18, -16, 51, -26, -14, 6, 7, 47, 
5, -2, 87, -50, -25, 11, 23, -17, -24, 75, 79, 82, -1, -4, -27, 12, 
-4, -57, 63, 85, -28, -52, 24, -85, -46, -79, -62, -11, 25, -70, 4, 30, 
-35, 11, 54, -89, -21, -29, 96, -106, -30, 52, 64, -27, 70, 83, -49, 65, 
-47, 71, 77, -65, 20, 74, 5, -55, -21, 97, 12, 60, 5, -51, 64, -60, 
73, 84, 49, -98, 86, -7, -65, -118, -10, -90, -69, -21, 39, -94, -15, 91, 
38, -2, 49, -30, 25, -24, 49, 81, -11, -17, -95, 102, -55, -15, 28, 13, 
30, -16, 61, 55, 43, 14, -54, 21, 37, 82, -65, 80, 111, -22, 67, -101, 
-93, -3, 73, 29, 23, -64, 12, 20, -89, -16, -69, 4, -68, -70, 5, -66, 
0, -97, -15, 6, 3, -82, -88, 105, -26, 53, 59, 1, 37, -87, -47, -7, 
60, 47, 43, -12, 4, 37, 89, -42, -13, 34, -76, 43, -40, 75, 76, 0, 
9, 40, 110, 31, -26, 1, -107, -12, -75, 39, 79, 35, -111, -53, 66, 23, 
61, -4, 65, 49, -2, 121, 65, 6, 58, 14, 58, -40, -49, 84, 31, 48, 
-90, -79, -6, -98, -85, -4, -40, -44, -88, 41, 60, -56, -102, -101, -77, -95, 
23, 24, -58, 57, -40, 30, -48, 24, -18, 12, 12, -15, 96, 48, 68, -4, 
-84, 9, 98, 76, 87, 85, -65, -28, -69, -42, 34, -80, -10, 0, 8, 97, 
92, 67, 94, 20, -69, 84, -63, -32, 93, 47, -93, 11, 35, -104, 105, 58, 
84, 2, 113, -61, -42, 11, -33, 92, -18, 75, 88, 95, 56, -107, -46, -26, 
76, 58, -108, -16, -77, -86, 55, 18, 45, 39, -55, 28, -62, 34, -74, -86, 
111, -67, -19, -50, 55, 50, -69, 53, -127, -67, 39, 92, -32, 0, -12, -57, 
-63, -84, -22, -34, 89, -96, -12, 41, 61, -2, -87, -68, -20, -51, -26, -84, 
58, 45, 69, -85, -82, -53, -90, 9, 87, 67, 24, 40, 67, -109, -39, -6, 
-1, 22, 32, 20, -12, 82, 67, -40, 8, -34, -55, 68, -79, 4, 4, 69, 
51, 78, -55, -55, 38, -58, 61, -9, 96, 92, 30, -86, 55, 28, 78, -72, 
31, 68, 25, 47, -10, 22, -79, 71, -20, 79, 22, 13, 79, -5, -51, -24, 
-56, 79, -65, -59, -11, 54, 25, 69, -26, -31, -54, 107, -49, -10, 36, 59, 
22, 10, -40, 19, -28, 21, 72, -74, -14, -7, 22, -61, 22, 85, 54, 92, 
53, -48, -15, -23, -14, -63, 8, -29, 66, -16, 84, 28, -28, -74, -1, 49, 
-46, 38, 22, -68, -60, 46, 14, 20, -68, -7, -94, 93, 11, -94, -18, -46, 
-74, 2, 4, -88, -57, 61, 48, -32, -16, 85, -96, 82, -87, 88, -36, -85
};

// Layer 10: bottleneck_c2.dw.0
// Shape: (64, 1, 3, 3)
// Scale: 1023.6689063009713
int8_t weights_10[576] = {
-38, -50, -79, -45, 39, -68, 35, 30, 28, 45, -48, -53, 58, 14, 41, 3, 
80, -66, 1, -82, -1, 32, -75, 7, 24, 53, 9, -40, 33, -46, 37, -61, 
-4, 14, 31, 38, -51, -52, 11, -21, -66, -40, 6, -11, -44, 20, 33, 12, 
-81, -47, 32, -24, 16, 20, 27, 46, 31, 67, -39, 55, -18, 58, -29, -45, 
-11, 11, -105, 68, 3, -56, -12, -34, 14, -16, -10, -27, 40, -99, -31, -86, 
-112, 47, 38, 28, 49, 36, 33, 71, -28, 45, 39, 50, 25, 47, -13, 14, 
71, 61, 76, -92, 34, 5, -42, 2, 20, -64, 28, 20, 37, 32, -7, -46, 
-29, -22, 17, 56, 10, 23, 0, 65, 67, 32, 61, 75, 23, 25, 3, 58, 
31, -18, 28, 21, 39, -69, 37, -79, 39, 42, 30, 55, 26, -27, 48, 41, 
-10, -3, 21, -38, 36, 31, -91, -97, -63, 58, 59, -45, -80, 31, 3, -11, 
31, -18, -6, 32, -10, -107, -12, 20, -6, -77, 74, 59, 10, 31, 44, 78, 
59, 38, -35, 28, 14, 28, 17, 17, -51, -31, -125, 7, -18, -26, -30, -26, 
-12, -67, -45, -19, -12, -21, 42, 49, 45, 42, 30, 51, 55, 34, 49, 11, 
28, -75, 7, -96, -43, 27, 15, 22, -25, -9, -22, -45, -46, -57, -53, -78, 
-88, -18, 98, 52, 43, 9, 43, -30, -61, 50, 34, 35, 2, 35, -49, -9, 
73, 46, 64, 83, -4, 65, 51, -18, 73, 50, 61, 38, -86, -84, -25, -57, 
-50, -60, -60, -3, -79, -8, -22, 0, -13, -126, -11, -20, -12, 3, 47, 36, 
75, 26, -23, 67, -7, -4, 31, 29, 55, -3, -16, 58, 51, 29, -22, 61, 
-70, -2, 66, 36, -8, -81, 45, -21, 51, -48, -36, -46, -62, -26, -51, -12, 
-8, -24, 17, 8, -101, -37, -17, -61, -59, -26, 13, 48, 34, 49, 11, 8, 
41, -23, -29, 28, -8, 18, 95, -32, 2, 50, 67, -67, -6, -74, 1, -49, 
-38, -8, -80, 35, -34, -57, -25, -53, -66, -25, -21, -20, -51, -36, -38, 19, 
18, 36, 45, 22, 45, 41, 52, 36, 48, 7, 1, 41, 0, -39, 34, 6, 
-92, 65, 45, 54, 60, 66, 26, 62, 23, 1, 5, -1, 2, -85, 14, -113, 
24, -103, -1, 21, 65, 72, 9, 16, 41, 25, 36, 49, 12, -3, 22, -8, 
91, 33, -6, 44, 36, 58, 53, -1, 47, 19, 2, 63, 60, 84, 63, -33, 
27, 61, 21, 81, 16, 24, 78, -31, -38, -28, 6, 39, -12, -9, -27, -43, 
6, -6, -50, -29, -39, 7, 12, -86, 34, 69, 52, 66, 58, 34, 58, -23, 
15, 66, -58, -39, 70, 30, 17, 67, 67, 102, 50, -53, -66, -43, -45, -4, 
-55, -74, -43, -74, 5, 48, -33, -26, 58, 77, -35, -46, 36, -44, -55, -105, 
-20, 36, -22, -61, -2, -4, -24, -14, 3, -104, 25, 5, 26, -95, 26, -40, 
-59, -34, -35, -13, -49, -52, -79, -21, -45, -47, -92, 31, -46, 36, 59, -7, 
28, 25, -40, 69, 42, 47, -74, -8, -2, 38, 20, 19, 26, -2, -1, 18, 
12, -127, 20, -65, -34, -17, -8, -36, -43, -27, -51, 10, 46, 45, 36, -24, 
-78, 14, 10, 32, 17, 26, -53, -1, 31, -7, -85, -2, -98, -89, 40, 50, 
-29, 30, -25, 53, 63, 57, 23, -4, -4, 25, 56, 15, 5, 58, 42, 74
};

// Layer 11: bottleneck_c2.project.0
// Shape: (16, 64, 1, 1)
// Scale: 220.49910365268644
int8_t weights_11[1024] = {
5, 68, -35, 101, -59, 107, -14, -99, 98, -15, 67, 102, 55, -4, 74, -24, 
93, 77, -11, 99, -53, -46, 93, -8, -84, -4, -86, 18, 13, -76, -61, -93, 
49, -25, 75, 14, -46, -27, -16, 22, -107, -102, 4, -96, -94, -65, 82, 52, 
37, 90, -2, 112, 32, 95, 0, 14, 30, 49, -81, -78, -45, -50, -18, -12, 
-26, -8, 95, 10, 8, 84, -113, 26, -16, 27, -71, -84, 32, -110, 23, 33, 
80, -4, -5, -33, -51, 86, 61, 51, -34, -42, -28, 86, 86, 100, 12, 35, 
-13, 10, -51, -4, 58, 78, 80, 64, -9, -80, -69, 38, 4, -9, 62, 12, 
-4, 118, -106, 116, 69, -45, -11, 36, -32, 26, 23, -12, 65, 18, -10, -50, 
-14, 37, -94, 100, -106, -10, -43, -10, 9, 4, -48, -87, 21, 40, -26, 64, 
42, -96, -38, 0, 7, 13, -89, 26, 29, -53, -77, 10, 17, -40, -37, -20, 
-38, -8, -105, 101, -72, 48, -92, -120, 18, 62, -5, -96, -61, 115, 59, -113, 
22, -33, -14, 69, 50, -48, 6, -34, -1, -101, -66, -103, -98, -86, 64, -67, 
56, 7, 42, -44, 3, -95, -75, 102, -27, 69, -60, -33, -70, -8, 44, -67, 
6, 72, -36, 59, -19, 32, 23, 67, 53, -52, 47, 52, 108, -66, 10, 30, 
-100, 11, 71, -14, 9, -80, 50, 123, -48, -22, 82, -73, 7, -63, -52, 82, 
14, 97, -8, 92, 89, 81, 78, 41, 35, 102, 68, 95, 51, -72, -17, -95, 
89, -18, 93, 12, 4, -103, -20, -15, -86, 107, 27, 77, -50, -67, 63, -45, 
-9, 23, -60, 100, 14, -78, -65, 57, -39, -81, 11, 68, 37, 74, 5, -99, 
16, -46, -107, -90, 86, -26, 88, 94, -69, 86, 1, -108, 84, -3, -73, 48, 
33, 20, -71, 55, 83, 37, -44, 59, -87, 9, 26, 9, -9, 38, -55, 43, 
17, -11, -24, -39, 55, -62, -8, -65, 107, -15, -37, 31, -58, 99, -34, 111, 
-49, -33, -86, -93, 90, -71, 82, -91, 16, 82, 69, 95, -110, 43, -9, -60, 
-28, -14, 23, -46, -84, -12, -28, -45, 32, 42, -30, 39, 43, 102, -36, 1, 
102, 97, 3, -21, 15, -84, 46, -83, 52, -25, 29, -7, 62, -43, -15, -19, 
-29, -10, 14, 53, 1, 100, -108, -65, 0, 19, 94, -67, 52, -15, 25, -39, 
39, -23, -92, -9, -33, 31, -81, -106, -34, -48, -3, -31, 11, 75, 34, 113, 
44, 52, 38, -13, 62, -72, 89, 114, -34, -22, 89, -87, -68, 110, 87, 37, 
1, 66, -16, 112, 37, 82, -11, -98, 92, 49, -30, 14, 67, 25, -31, -72, 
-97, -74, 27, 61, -74, 52, 57, -8, 30, 26, -66, -42, -33, 14, -81, 61, 
-12, -62, -35, -57, 51, 114, -50, 0, -77, 35, 121, -26, 87, 13, 58, 52, 
-73, 0, 39, 84, -52, 61, -122, -3, 19, 62, -53, -36, 90, -34, -21, 91, 
-18, -110, 59, 101, -6, -89, -56, -124, 9, -77, -49, -52, -13, 43, 32, -50, 
101, -41, 1, 51, 12, -38, 77, -85, 69, 60, 50, 69, -21, -24, -86, 19, 
66, -88, -14, 83, 30, 56, 64, -6, -36, -70, 79, -37, 90, 106, 44, 20, 
33, -44, -24, -12, 9, -72, 18, 69, -20, -81, -7, -30, 18, -110, -2, 94, 
86, 29, -54, 61, 108, 90, 100, 36, 3, -28, 74, 21, 100, -2, -91, 59, 
26, 91, -80, 24, -3, -77, -28, 101, 33, 70, -108, 28, -81, -13, 12, -97, 
-30, -6, 2, 81, -90, 47, 97, 2, 79, 37, 95, -6, -95, 33, 86, -46, 
-7, 44, 4, -79, -23, -103, -24, -40, -17, 26, 3, 30, -27, 124, -90, 86, 
-33, -34, 43, -107, -23, -18, -101, 19, 87, -63, -39, -83, 18, 84, -95, 21, 
76, 55, -41, 1, -40, -40, 11, -24, 107, 17, -19, 11, 26, 13, 93, 10, 
-13, 7, 27, -6, -79, 82, -18, 30, 65, 16, -25, -35, -95, 4, 106, -82, 
-41, 17, 74, -21, 23, 66, 14, -73, -4, 114, -55, 45, 16, -13, -66, -91, 
40, -46, 82, 99, -29, -20, 54, 51, -7, -38, 11, 86, -8, -84, 116, 47, 
68, -10, -17, -62, -64, -20, 103, -83, 71, 5, -85, -18, 40, 71, 55, -27, 
44, 43, -42, -50, 74, 116, -68, 41, -76, -63, 70, -18, -112, -24, 25, -47, 
-19, 78, -11, -13, -55, 45, 47, -102, 65, -33, 34, 32, 11, -94, -23, -42, 
63, 23, 85, 12, -28, -50, 96, -67, 17, 39, 100, 87, -33, 35, 99, -35, 
-98, 52, 55, 27, -16, -83, 15, 16, -64, -86, -4, -48, -13, -31, 87, -41, 
37, -1, 70, -64, -37, 22, 80, 65, -83, -41, -85, -89, -81, -49, -19, -29, 
-49, -85, -91, -7, 41, -12, -83, -76, -37, -15, 52, -105, 94, -72, -11, 23, 
25, -102, 63, 110, 2, 11, -87, 81, -98, -80, -39, 84, 18, -11, 51, -61, 
-2, -73, 75, 36, -3, 58, -99, 0, 52, -69, 71, -88, 58, -70, -22, -106, 
-81, -7, 80, -81, -3, -11, 91, -70, -86, -75, 41, 18, 116, -109, 55, -21, 
-50, -81, 91, 0, 10, -11, 55, -5, 48, -64, 13, 21, 12, -26, 30, 33, 
-47, 101, -89, 12, 4, -52, -97, -11, 41, 26, 6, 12, -72, -84, 86, -18, 
31, -92, -97, -10, -100, 93, 37, 96, 11, -23, 33, -13, 72, -52, 24, 97, 
55, -38, 67, 58, 71, 94, 70, -6, -74, 29, 66, 35, -11, -6, 80, -19, 
107, -8, -99, -59, 11, -54, -68, 107, -37, 36, 88, -60, 10, -87, 35, -49, 
35, 37, -14, 23, 71, -57, 14, 77, 93, -88, -22, 13, 70, 59, -109, -90, 
-104, -2, -46, 38, -80, -34, -19, -55, -19, 36, 117, -63, 4, 106, 16, -50, 
24, 2, 19, -21, -32, 54, -64, 13, 3, 22, -64, 68, -36, -63, -111, 94, 
73, -15, 97, -14, -71, -99, 43, 127, 18, -9, -2, -23, -20, 1, 78, -16, 
-26, -41, -11, 95, -73, -71, 19, 55, 53, -44, -97, 15, 29, 1, -81, 68
};

// Layer 12: conv_pw.0
// Shape: (48, 16, 1, 1)
// Scale: 359.70281044088824
int8_t weights_12[768] = {
-111, -8, 31, 29, -67, 26, -126, 89, -66, -42, 11, 116, -84, 24, 64, 53, 
-92, -86, 23, -98, -57, -71, 55, 85, -60, 118, 12, 84, 15, 61, -16, -51, 
31, 47, -39, 71, -7, -51, 45, -33, -8, -52, -22, -33, -56, 26, 44, 13, 
-93, -49, -7, -90, -33, -22, -84, 15, -80, -9, 62, -16, -62, -57, -61, 13, 
-36, -90, -5, -26, -25, 11, -46, 85, 25, 27, -13, 44, 10, -25, -32, -37, 
15, 115, -103, 61, 89, -9, 99, -49, 4, -3, 54, 44, -58, -8, 43, 25, 
-22, 100, -68, 44, 95, -8, 39, -25, 108, 43, -11, 47, 14, 22, 102, 86, 
-3, -36, 48, 96, 81, -54, 57, -100, 36, 1, -96, -102, -10, -40, 38, 20, 
-46, 110, -49, 17, -45, -34, 108, -77, -50, -88, -91, -41, -3, 22, 77, -14, 
-68, -122, -25, -110, 42, 28, 62, 63, -62, 26, -40, 127, -73, -37, 19, -69, 
34, -93, 4, -44, -27, -37, -111, 96, 9, 89, 12, 50, -92, 43, -48, -34, 
-95, 22, -47, -30, -94, 61, -54, 48, -99, 53, -17, 71, 47, -81, 34, -26, 
49, 50, 55, -62, -68, 70, -92, 61, -87, 29, 64, -16, -32, -30, -55, -55, 
48, -85, 71, -89, 0, 42, -67, 61, -91, 67, 80, -22, 11, -34, 25, -54, 
88, -11, 43, 78, 12, 30, 110, -68, 0, -40, 0, -24, 59, 42, 66, 25, 
-33, -37, 19, -87, -26, 37, -27, 19, -10, 66, -29, 56, -24, -35, -13, -51, 
-63, -8, 43, -118, 68, 17, -100, 50, 37, 74, -22, 73, -64, -24, 0, -32, 
66, -40, 29, -108, -90, 43, -54, -19, -98, 51, -31, 16, -86, -95, -78, -6, 
-69, -13, 79, 64, -38, 76, -35, 77, 46, 76, 9, 25, -49, -18, -47, 18, 
6, 29, -99, -28, 26, -61, 71, 23, 25, 28, -96, -16, -74, 85, 65, 48, 
77, -54, -35, 3, 80, -64, 31, -97, 83, 48, -22, -39, 64, 22, 70, 95, 
42, 9, -5, -56, -61, -67, -43, 101, -9, 14, 77, -35, -19, -88, -18, -79, 
23, 80, -35, -22, -48, 13, 108, -71, 65, 38, -61, -76, 22, 65, 23, 19, 
-14, -101, 39, 36, -117, 30, 30, 38, -36, 63, 76, 92, -48, -15, -36, 32, 
86, 101, -33, 78, 25, -64, 28, -68, 12, 13, -39, -36, -74, 20, 31, 38, 
-106, -7, -35, -88, -40, 14, -37, 44, -29, 29, 86, -42, -63, -55, -21, -29, 
-41, -24, 33, -89, -57, 9, 31, 82, -57, 21, 54, 25, -47, -48, -19, -55, 
41, 17, -30, 46, 7, -69, 124, 27, 82, 55, -104, 55, 8, 86, 13, 51, 
-119, -5, -36, -61, -67, 48, 67, 65, -87, 40, 67, 12, 79, -92, -28, -14, 
43, 9, 7, 54, 16, 18, 111, -41, -33, -53, 3, -67, -49, 88, 63, 46, 
-93, -97, 64, 63, -103, 85, -6, 35, -77, 28, 66, 36, -8, -35, -9, -55, 
79, 56, -29, 105, 17, -77, -63, -50, -43, 34, -45, -77, -7, 38, 71, 77, 
-75, -29, 50, -38, -94, 61, -33, 35, -25, 19, 16, 28, 36, -17, -34, 51, 
44, 71, -11, 71, -7, 31, 38, -44, 39, -44, -24, -25, 57, 39, 59, 63, 
-92, -54, 40, 32, 31, 11, -39, 63, -28, -13, 83, 36, -53, -34, 11, -44, 
69, 115, -39, -72, -18, 41, 96, -71, 54, -34, 26, -73, 6, 72, 16, 20, 
-48, -102, 62, -65, -19, 17, -57, -15, 35, 25, 63, 85, -45, -47, 43, -84, 
13, -77, -17, -20, -36, 41, -91, 38, -77, -64, 49, 56, -27, 13, 39, -42, 
-127, -16, 59, -50, -106, 1, -19, -53, 9, -38, 120, 38, -28, -79, -33, 38, 
-6, 36, -39, 61, 70, -83, 115, 33, 70, -68, -92, -97, -28, -58, -38, 55, 
92, 107, -33, -27, 67, 14, 105, -33, 81, -18, -22, 24, 50, -20, 55, 47, 
81, 46, -67, -12, 68, 59, 43, -72, -12, -11, 54, -96, 34, 33, 101, 67, 
-48, -97, 93, -70, 74, 79, -86, 91, -22, -10, 35, -39, -41, 17, 76, -69, 
-125, 74, -32, 25, -15, -4, -37, 119, 46, 90, 123, 71, 53, 35, -93, -83, 
-40, -31, -55, -45, 57, 86, -73, 97, -19, 82, 87, 43, 31, 10, -24, -72, 
69, -63, -36, 95, 65, -86, -11, -64, 15, -40, -57, -66, -87, 42, -4, 40, 
42, 33, 41, 52, 20, -80, -2, -4, 63, 46, -122, -41, -15, 105, -20, -2, 
73, 112, -81, 111, 74, 32, -59, 50, 82, -1, -113, 2, -15, -1, 39, -42
};

// Layer 13: fc1
// Shape: (32, 48)
// Scale: 910.4353565928703
int8_t weights_13[1536] = {
92, 96, -20, 104, 105, 2, -9, 0, -31, 85, 89, 104, 95, 93, -22, 92, 
83, 101, 91, 9, 7, 84, -33, 92, -31, 97, 92, -11, 103, -19, 97, -6, 
86, -27, 79, -18, 88, 81, 74, -22, -12, -8, 95, 94, 79, -12, 2, 13, 
99, 113, -48, 110, 85, 37, -17, -12, -22, 104, 103, 117, 108, 110, 4, 100, 
97, 99, 86, 1, -3, 86, -24, 105, -42, 117, 102, -23, 106, -30, 111, -5, 
104, -12, 114, -26, 93, 96, 110, -51, -8, -13, 94, 91, 107, -1, 10, 0, 
-21, -33, 83, -51, -41, 69, 81, 89, 97, -48, -44, -32, -65, -57, 84, -52, 
-45, -44, 13, 79, 59, 6, 111, -34, 108, -42, -61, 95, -47, 102, -50, 88, 
-21, 88, -45, 96, -39, -27, -58, 95, 85, 92, -8, -33, -33, 90, 63, 63, 
90, 100, -35, 111, 93, 23, -2, 2, -24, 100, 118, 99, 103, 105, -1, 106, 
103, 106, 84, 13, 0, 76, -41, 105, -37, 106, 108, -16, 101, -27, 109, -10, 
97, -27, 102, -32, 108, 87, 106, -26, -23, -16, 88, 87, 94, -8, 9, 6, 
-14, -48, 103, -66, -36, 78, 86, 92, 103, -51, -50, -22, -40, -73, 71, -59, 
-40, -50, 5, 91, 93, 5, 96, -23, 103, -71, -59, 90, -42, 99, -78, 80, 
-23, 113, -54, 110, -56, -18, -34, 92, 96, 83, -18, -6, -43, 77, 80, 81, 
92, 99, -50, 96, 79, 33, 6, 11, -33, 99, 103, 88, 91, 97, 5, 102, 
83, 99, 94, 16, 8, 70, -53, 113, -40, 110, 96, -24, 97, -23, 108, -18, 
99, -21, 95, -18, 107, 79, 119, -24, -22, -11, 68, 94, 102, -15, 3, 5, 
87, 103, -33, 111, 99, 19, -4, 0, -18, 102, 104, 77, 104, 116, 13, 104, 
86, 110, 82, 8, 3, 75, -35, 105, -34, 116, 124, -10, 104, -33, 102, -9, 
95, -19, 101, -34, 108, 85, 98, -38, -33, -24, 86, 87, 99, -9, 9, 6, 
-1, 0, -1, -2, -3, -2, -6, 0, -2, 0, 1, -2, -2, 0, -3, -1, 
-1, -3, -1, -3, 1, -2, 1, 1, -1, 1, -1, 0, -1, -1, -3, 0, 
2, 0, 0, -1, -1, -4, 1, 0, 0, -2, -2, -1, -1, -1, -2, -1, 
-15, -48, 106, -69, -26, 100, 97, 89, 107, -61, -47, -39, -52, -57, 89, -37, 
-56, -39, 1, 84, 91, 7, 115, -47, 127, -47, -60, 64, -51, 107, -59, 98, 
-42, 99, -53, 90, -65, -27, -47, 101, 94, 94, -25, -15, -39, 91, 72, 55, 
-9, -1, 0, 0, 2, -6, 4, -8, -8, -1, 2, -10, 8, -4, -14, -7, 
-2, 1, -3, -18, -11, -3, 7, -11, -6, -12, -10, -15, -8, 8, 0, -10, 
-1, -5, 2, 0, -8, -15, 10, -6, -9, -10, 5, 5, 2, -14, -7, 1, 
-24, -40, 101, -65, -42, 73, 104, 80, 96, -43, -56, -38, -54, -41, 84, -58, 
-49, -41, -1, 94, 77, 9, 103, -43, 89, -60, -53, 96, -34, 99, -69, 89, 
-51, 90, -45, 97, -58, -16, -31, 84, 93, 92, -13, -12, -53, 99, 82, 85, 
0, 0, 0, 0, 0, 0, 0, 0, 0, 0, 0, 0, 0, 0, 0, 0, 
0, 0, 0, 0, 0, 0, 0, 0, 0, 0, 0, 0, 0, 0, 0, 0, 
0, 0, 0, 0, 0, 0, 0, 0, 0, 0, 0, 0, 0, 0, 0, 0, 
98, 126, -36, 115, 92, -1, 2, -4, -18, 94, 109, 106, 102, 100, -16, 120, 
107, 111, 75, 18, 6, 87, -50, 103, -49, 102, 117, 3, 89, -16, 111, 3, 
98, -23, 97, -31, 120, 85, 112, -26, -22, -9, 78, 75, 107, -17, 0, 12, 
-4, -4, 2, 3, 0, -6, 0, -6, 6, -6, 1, -7, -1, -1, 1, -4, 
-3, 4, -2, -5, 2, -12, -4, -6, -5, 0, -2, -1, 0, -4, -10, 1, 
-2, -8, -6, 6, -2, -2, -4, -2, 5, -7, -1, -1, -3, 4, -3, 3, 
-10, -51, 106, -56, -32, 82, 89, 95, 93, -40, -47, -44, -48, -60, 88, -53, 
-56, -34, -10, 76, 71, 2, 101, -58, 112, -43, -50, 73, -26, 104, -63, 102, 
-42, 98, -48, 88, -60, -18, -40, 97, 79, 87, -25, -7, -41, 75, 79, 77, 
85, 89, -21, 92, 89, 6, -9, -5, -16, 88, 88, 88, 89, 90, -7, 91, 
89, 89, 84, -1, -5, 78, -21, 90, -20, 92, 92, -11, 89, -17, 92, -10, 
89, -16, 91, -19, 91, 83, 90, -14, -15, -14, 82, 79, 87, -10, -1, 2, 
-12, -15, 35, -17, -16, 34, 33, 34, 32, -13, -15, -13, -15, -15, 33, -17, 
-15, -14, -12, 31, 32, -11, 34, -13, 35, -17, -17, 31, -14, 35, -16, 32, 
-15, 33, -17, 33, -17, -13, -15, 32, 33, 33, -13, -7, -13, 33, 31, 32, 
77, 80, -15, 81, 80, -3, -10, -5, -13, 78, 80, 77, 80, 80, -7, 81, 
79, 78, 77, -6, -5, 74, -14, 79, -14, 82, 83, -8, 78, -12, 81, -9, 
80, -11, 81, -13, 81, 76, 79, -10, -12, -10, 75, 70, 77, -7, -3, -2, 
88, 89, -24, 108, 83, 13, -11, -1, -28, 111, 95, 81, 100, 121, 3, 106, 
107, 100, 59, 20, 1, 74, -37, 99, -27, 98, 107, 0, 91, -24, 117, -6, 
96, -40, 91, -31, 103, 70, 91, -17, -12, -19, 74, 80, 85, -24, 0, 11, 
3, -3, -3, 1, -3, -1, -2, -4, -4, -5, -3, -1, 1, -8, 9, 1, 
-4, 1, 3, -13, -4, 0, 4, -3, 2, -5, -7, -2, 1, -3, -3, -12, 
5, 2, 8, -10, -11, 4, -8, -5, -5, -5, -1, -6, -1, -4, -2, 5, 
91, 102, -33, 106, 93, 19, -2, -2, -26, 102, 97, 97, 103, 103, -1, 105, 
98, 103, 85, 13, -2, 75, -37, 104, -33, 105, 105, -10, 99, -27, 105, -13, 
99, -24, 103, -30, 105, 84, 102, -24, -23, -14, 87, 85, 98, -7, 6, 7, 
-31, -30, 82, -52, -46, 70, 96, 85, 88, -45, -54, -42, -40, -41, 76, -51, 
-44, -39, -7, 87, 86, 2, 89, -35, 92, -54, -60, 92, -28, 97, -51, 73, 
-53, 90, -30, 93, -45, -34, -48, 83, 93, 89, -26, -10, -53, 94, 71, 72, 
0, -1, -1, 0, 0, 3, -1, -1, 0, -1, 0, -1, 0, 0, 0, 0, 
0, 0, 1, -1, 1, 0, 3, 0, -1, 0, 0, 1, 0, 0, 0, 0, 
0, -1, 0, -1, 0, 0, 0, -1, 0, 0, 0, -1, 0, -1, 0, 0, 
-25, -35, 90, -60, -35, 84, 93, 100, 96, -47, -45, -31, -56, -79, 71, -65, 
-44, -47, -5, 89, 82, 16, 93, -52, 102, -47, -61, 103, -41, 103, -67, 84, 
-29, 100, -58, 105, -59, -18, -64, 103, 100, 86, -23, -5, -27, 92, 91, 88, 
73, 103, -30, 111, 98, 19, -14, 18, -20, 102, 96, 96, 103, 107, 0, 124, 
109, 100, 95, 17, -9, 85, -45, 103, -34, 101, 105, -26, 104, -32, 109, -12, 
90, -32, 87, -27, 116, 86, 92, -21, -8, -10, 79, 83, 98, -11, 0, 9, 
3, 10, 13, 5, -3, 3, -9, 9, -8, -4, -1, -5, -18, -12, -2, -4, 
5, -21, -5, -11, 12, 6, 1, 4, -4, -4, -7, -4, -1, -9, -11, -1, 
-1, -10, 1, -10, -9, 3, 0, -15, -7, 4, -2, -5, 4, 3, 9, -16, 
-31, -40, 93, -68, -38, 77, 86, 95, 98, -40, -47, -34, -33, -59, 90, -54, 
-41, -53, -11, 76, 72, 0, 97, -56, 113, -58, -49, 91, -48, 100, -55, 97, 
-38, 89, -62, 96, -56, -23, -46, 102, 104, 110, -25, -3, -37, 92, 87, 73, 
0, 0, 0, 0, 0, 0, 0, 0, 0, 0, 0, 0, 0, 0, 0, 0, 
0, 0, 0, 0, 0, 0, 0, 0, 0, -1, 0, 0, 0, -1, 0, 0, 
0, 0, 0, 2, 0, 0, 0, 0, 0, 0, 0, 0, 0, 0, 0, 0, 
-33, -40, 102, -74, -33, 93, 100, 96, 100, -32, -47, -39, -33, -67, 83, -45, 
-43, -43, 0, 87, 72, 6, 107, -42, 99, -49, -48, 92, -33, 95, -63, 81, 
-49, 94, -61, 97, -57, -15, -44, 96, 86, 80, -17, 1, -46, 79, 58, 73, 
0, 0, 0, 0, 0, 0, 0, 0, 0, 0, 0, 0, 0, 0, 0, 0, 
0, 0, 0, 0, 0, 0, 0, 0, 0, 0, 0, 0, 0, 0, 0, 0, 
0, 0, 0, 0, 0, 0, 0, 0, 0, 0, 0, 0, 0, 0, 0, 0, 
0, -1, 1, -2, -1, -1, 0, -1, -1, -1, -1, -1, -1, -2, -1, -2, 
-2, -1, 0, -1, -1, -1, 1, -2, 0, -2, -2, -1, -2, -1, -1, -1, 
-1, -1, -1, -1, -1, -1, -1, -1, -1, 1, -1, -1, -1, 0, -1, 0, 
85, 88, -20, 90, 88, 3, -10, -6, -15, 87, 88, 86, 88, 89, -6, 90, 
88, 89, 83, -1, -5, 78, -19, 90, -20, 91, 93, -10, 87, -17, 90, -11, 
89, -15, 89, -17, 90, 82, 89, -13, -16, -14, 82, 76, 86, -8, -1, 1
};

// Layer 14: fc2
// Shape: (2, 32)
// Scale: 904.2789756091144
int8_t weights_14[64] = {
-92, -95, 110, -110, 106, -127, -105, 4, 106, -1, 103, 0, -105, -2, 110, -94, 
40, -82, -124, 4, -109, 99, 2, 89, -108, 1, 88, 5, 118, 0, 1, -93, 
98, 115, -103, 112, -124, 126, 119, -1, -115, 0, -105, 0, 121, -1, -102, 94, 
-40, 82, 125, 4, 108, -90, -4, -120, 117, -6, -119, 9, -117, 0, 4, 93
};

// Quantization scale factors
// fp32 = int8 / scale
float scale_factors[] = {
  483.5952560281554f,  // conv1.0
  465.52858965494903f,  // bottleneck_a.dw.0
  152.64207336411383f,  // bottleneck_a.project.0
  301.6129146050308f,  // bottleneck_b.expand.0
  851.0060637044434f,  // bottleneck_b.dw.0
  180.89975618043295f,  // bottleneck_b.project.0
  361.67935567731075f,  // bottleneck_c1.expand.0
  793.862545613333f,  // bottleneck_c1.dw.0
  215.09800644009988f,  // bottleneck_c1.project.0
  427.04863663826535f,  // bottleneck_c2.expand.0
  1023.6689063009713f,  // bottleneck_c2.dw.0
  220.49910365268644f,  // bottleneck_c2.project.0
  359.70281044088824f,  // conv_pw.0
  910.4353565928703f,  // fc1
  904.2789756091144f,  // fc2
};

float dequant_scale_factors[] = {
  0.0020678449334122066f,  // conv1.0
  0.0021480957823475514f,  // bottleneck_a.dw.0
  0.006551273695127232f,  // bottleneck_a.project.0
  0.003315507896303192f,  // bottleneck_b.expand.0
  0.001175079758711687f,  // bottleneck_b.dw.0
  0.005527923426290196f,  // bottleneck_b.project.0
  0.0027648799532041775f,  // bottleneck_c1.expand.0
  0.0012596639122549943f,  // bottleneck_c1.dw.0
  0.00464904355251883f,  // bottleneck_c1.project.0
  0.002341653653017179f,  // bottleneck_c2.expand.0
  0.0009768783576845183f,  // bottleneck_c2.dw.0
  0.00453516582804402f,  // bottleneck_c2.project.0
  0.0027800728016950955f,  // conv_pw.0
  0.0010983756208044339f,  // fc1
  0.0011058534224202313f,  // fc2
};

#endif  // __TINYMOBILENET_WEIGHTS_H__
